digraph Tree {
0 [label="X[2] <= 2.4500\nentropy = 1.58223227365\nsamples = 100", shape="box"] ;
1 [label="entropy = 0.0000\nsamples = 31\nvalue = [ 31.   0.   0.]", shape="box"] ;
0 -> 1 ;
2 [label="X[3] <= 1.6500\nentropy = 0.998635964159\nsamples = 69", shape="box"] ;
0 -> 2 ;
3 [label="X[2] <= 4.9500\nentropy = 0.49418293485\nsamples = 37", shape="box"] ;
2 -> 3 ;
4 [label="entropy = 0.0000\nsamples = 32\nvalue = [  0.  32.   0.]", shape="box"] ;
3 -> 4 ;
5 [label="entropy = 0.7219\nsamples = 5\nvalue = [ 0.  1.  4.]", shape="box"] ;
3 -> 5 ;
6 [label="entropy = 0.0000\nsamples = 32\nvalue = [  0.   0.  32.]", shape="box"] ;
2 -> 6 ;
}